svm_type c_svc
kernel_type rbf
gamma 2
nr_class 3
total_sv 46
rho -0.47106232134265952 -0.68241641095387906 -0.25337393087935062
label 1 0 79188
nr_sv 24 21 1
SV
8 0 1:0.286818 2:0.861893 3:-0.962834 
8 0 1:0.286818 2:0.854587 3:-0.945345 
8 0 1:0.277034 2:0.84241 3:-0.929784 
8 0 1:0.270855 2:0.829015 3:-0.927984 
8 0 1:0.265191 2:0.81562 3:-0.927083 
0 0.17438934080030821 1:0.165808 2:0.354104 3:-0.22428 
0.47934408798782829 0.29058074809105688 1:0.084449 2:0.0374972 3:1 
8 0 1:0.257467 2:0.825362 3:-0.897377 
0.48014685646950844 0.50309083631269036 1:-0.121524 2:-0.934243 3:-0.408436 
8 0.27040111620058233 1:0.291406 2:0.94271 3:-0.97064 
0.2768886364805534 0.21776402825351185 1:-0.627188 2:-0.0976697 3:0.161008 
0 0.25518028435752599 1:-0.817714 2:0.780306 3:-0.367284 
8 0 1:0.227366 2:0.874364 3:-0.933237 
3.9100716899564265 0 1:0.22022 2:0.831992 3:-0.927317 
8 0 1:0.253274 2:0.909094 3:-0.930577 
8 0 1:0.24803 2:0.89915 3:-0.938765 
8 0 1:0.251287 2:0.859458 3:-0.89249 
8 0 1:0.242791 2:0.834427 3:-0.91308 
0 0.034419294631127077 1:-0.201854 2:0.38333 3:-0.59928 
0.095171921913326851 0 1:-0.506179 2:0.0435858 3:0.380015 
8 0 1:0.247168 2:0.860676 3:-0.934156 
8 0 1:0.23378 2:0.838757 3:-0.869856 
8 0 1:0.197734 2:0.872853 3:-0.942387 
8 0 1:0.182801 2:0.861893 3:-0.938143 
-7.7520300887908666 0 1:0.299691 2:0.897207 3:-0.937757 
-8 0 1:0.302266 2:0.89599 3:-0.934028 
-8 0 1:0.300721 2:0.893554 3:-0.936471 
-8 0 1:0.295572 2:0.886248 3:-0.941358 
-8 0 1:0.290937 2:0.877724 3:-0.930556 
-8 0 1:0.289907 2:0.8692 3:-0.908308 
-8 0 1:0.277034 2:0.855805 3:-0.912551 
-4.0219248375403245 0 1:0.263646 2:0.919126 3:-0.94856 
-8 0 1:0.246094 2:0.903037 3:-0.959601 
-8 0 1:0.242546 2:0.922481 3:-0.928286 
-8 0.23918785927572361 1:0.236883 2:0.895957 3:-0.954733 
-8 0 1:0.234786 2:0.883473 3:-0.920182 
-0 0.62498558984861774 1:1 2:0.539198 3:-0.62963 
-0 0.38935790566769318 1:0.269513 2:0.953259 3:-0.975952 
-8 0 1:0.262564 2:0.923689 3:-0.929528 
-8 0 1:0.26931 2:0.908167 3:-0.948174 
-0.48255827179709487 0 1:0.871782 2:0.573294 3:-0.689558 
-8 0 1:0.259305 2:0.894402 3:-0.941067 
-8 0 1:0.255394 2:0.897485 3:-0.945601 
-8 0 1:0.252317 2:0.872853 3:-0.945988 
-0.98510999467935789 0 1:0.941813 2:0.546504 3:-0.633488 
-1.7458256486468027 -1.2535313547920344 1:-1 2:-1 3:-0.941205 
